<?xml version="1.0"?>
<opencv_storage>
<cascade>
  <stageType>BOOST</stageType>
  <featureType>HAAR</featureType>
  <height>24</height>
  <width>24</width>
  <stageParams>
    <boostType>GAB</boostType>
    <minHitRate>9.9500000476837158e-01</minHitRate>
    <maxFalseAlarm>5.0000000000000000e-01</maxFalseAlarm>
    <weightTrimRate>9.4999999999999996e-01</weightTrimRate>
    <maxDepth>1</maxDepth>
    <maxWeakCount>100</maxWeakCount></stageParams>
  <featureParams>
    <maxCatCount>0</maxCatCount>
    <featSize>1</featSize>
    <mode>BASIC</mode></featureParams>
  <stageNum>11</stageNum>
  <stages>
    <!-- stage 0 -->
    <_>
      <maxWeakCount>2</maxWeakCount>
      <stageThreshold>-1.9044816493988037e-01</stageThreshold>
      <weakClassifiers>
        <_>
          <internalNodes>
            0 -1 24 2.0947495475411415e-02</internalNodes>
          <leafValues>
            -9.0371888875961304e-01 8.4402376413345337e-01</leafValues></_>
        <_>
          <internalNodes>
            0 -1 28 -1.3279646635055542e-02</internalNodes>
          <leafValues>
            7.1327078342437744e-01 -8.7879163026809692e-01</leafValues></_></weakClassifiers></_>
    <!-- stage 1 -->
    <_>
      <maxWeakCount>3</maxWeakCount>
      <stageThreshold>-9.0124553442001343e-01</stageThreshold>
      <weakClassifiers>
        <_>
          <internalNodes>
            0 -1 17 -1.1273815296590328e-02</internalNodes>
          <leafValues>
            8.0580693483352661e-01 -8.0783241987228394e-01</leafValues></_>
        <_>
          <internalNodes>
            0 -1 8 6.4911968074738979e-03</internalNodes>
          <leafValues>
            -8.6705338954925537e-01 6.6520625352859497e-01</leafValues></_>
        <_>
          <internalNodes>
            0 -1 1 2.5564666837453842e-02</internalNodes>
          <leafValues>
            -6.0405558347702026e-01 7.7364033460617065e-01</leafValues></_></weakClassifiers></_>
    <!-- stage 2 -->
    <_>
      <maxWeakCount>4</maxWeakCount>
      <stageThreshold>-2.7646932005882263e-01</stageThreshold>
      <weakClassifiers>
        <_>
          <internalNodes>
            0 -1 6 -9.7202546894550323e-03</internalNodes>
          <leafValues>
            7.5753134489059448e-01 -8.0240255594253540e-01</leafValues></_>
        <_>
          <internalNodes>
            0 -1 32 3.9078677073121071e-03</internalNodes>
          <leafValues>
            -6.8746471405029297e-01 6.1585509777069092e-01</leafValues></_>
        <_>
          <internalNodes>
            0 -1 15 -7.3647173121571541e-03</internalNodes>
          <leafValues>
            6.6862064599990845e-01 -6.0966944694519043e-01</leafValues></_>
        <_>
          <internalNodes>
            0 -1 25 9.0789552778005600e-03</internalNodes>
          <leafValues>
            -7.5854253768920898e-01 5.5952423810958862e-01</leafValues></_></weakClassifiers></_>
    <!-- stage 3 -->
    <_>
      <maxWeakCount>3</maxWeakCount>
      <stageThreshold>1.7132280394434929e-02</stageThreshold>
      <weakClassifiers>
        <_>
          <internalNodes>
            0 -1 18 6.9846222177147865e-03</internalNodes>
          <leafValues>
            -9.6403872966766357e-01 6.4321112632751465e-01</leafValues></_>
        <_>
          <internalNodes>
            0 -1 11 -6.9417511112987995e-03</internalNodes>
          <leafValues>
            5.5097121000289917e-01 -7.2667098045349121e-01</leafValues></_>
        <_>
          <internalNodes>
            0 -1 3 2.1607551723718643e-02</internalNodes>
          <leafValues>
            4.3019983172416687e-01 -9.8441553115844727e-01</leafValues></_></weakClassifiers></_>
    <!-- stage 4 -->
    <_>
      <maxWeakCount>3</maxWeakCount>
      <stageThreshold>-7.2331970930099487e-01</stageThreshold>
      <weakClassifiers>
        <_>
          <internalNodes>
            0 -1 19 -3.8079626858234406e-02</internalNodes>
          <leafValues>
            6.5629976987838745e-01 -9.2119830846786499e-01</leafValues></_>
        <_>
          <internalNodes>
            0 -1 14 2.9586693271994591e-03</internalNodes>
          <leafValues>
            -8.4966784715652466e-01 4.5500180125236511e-01</leafValues></_>
        <_>
          <internalNodes>
            0 -1 36 -6.4091738313436508e-03</internalNodes>
          <leafValues>
            7.2538667917251587e-01 -5.2995163202285767e-01</leafValues></_></weakClassifiers></_>
    <!-- stage 5 -->
    <_>
      <maxWeakCount>2</maxWeakCount>
      <stageThreshold>-3.4339123964309692e-01</stageThreshold>
      <weakClassifiers>
        <_>
          <internalNodes>
            0 -1 10 -7.7836588025093079e-02</internalNodes>
          <leafValues>
            -9.6793711185455322e-01 7.0121431350708008e-01</leafValues></_>
        <_>
          <internalNodes>
            0 -1 5 -2.2113805171102285e-03</internalNodes>
          <leafValues>
            6.2454581260681152e-01 -5.7750272750854492e-01</leafValues></_></weakClassifiers></_>
    <!-- stage 6 -->
    <_>
      <maxWeakCount>4</maxWeakCount>
      <stageThreshold>-3.5373896360397339e-01</stageThreshold>
      <weakClassifiers>
        <_>
          <internalNodes>
            0 -1 13 1.1224516667425632e-02</internalNodes>
          <leafValues>
            -6.7253714799880981e-01 6.5493577718734741e-01</leafValues></_>
        <_>
          <internalNodes>
            0 -1 2 5.4197069257497787e-03</internalNodes>
          <leafValues>
            -4.5930066704750061e-01 6.7509746551513672e-01</leafValues></_>
        <_>
          <internalNodes>
            0 -1 12 -1.4042007736861706e-02</internalNodes>
          <leafValues>
            -9.6042686700820923e-01 3.5303667187690735e-01</leafValues></_>
        <_>
          <internalNodes>
            0 -1 33 -2.0088832825422287e-03</internalNodes>
          <leafValues>
            4.2506214976310730e-01 -6.7958778142929077e-01</leafValues></_></weakClassifiers></_>
    <!-- stage 7 -->
    <_>
      <maxWeakCount>5</maxWeakCount>
      <stageThreshold>-8.0907160043716431e-01</stageThreshold>
      <weakClassifiers>
        <_>
          <internalNodes>
            0 -1 16 4.7106235288083553e-03</internalNodes>
          <leafValues>
            5.8184736967086792e-01 -8.7999999523162842e-01</leafValues></_>
        <_>
          <internalNodes>
            0 -1 0 5.2551301196217537e-03</internalNodes>
          <leafValues>
            -5.4538375139236450e-01 5.6150937080383301e-01</leafValues></_>
        <_>
          <internalNodes>
            0 -1 9 -2.1789581514894962e-03</internalNodes>
          <leafValues>
            6.2232571840286255e-01 -4.7875773906707764e-01</leafValues></_>
        <_>
          <internalNodes>
            0 -1 4 -5.3513273596763611e-03</internalNodes>
          <leafValues>
            7.5161719322204590e-01 -3.7872171401977539e-01</leafValues></_>
        <_>
          <internalNodes>
            0 -1 31 3.4258896484971046e-03</internalNodes>
          <leafValues>
            -7.5038707256317139e-01 3.6689850687980652e-01</leafValues></_></weakClassifiers></_>
    <!-- stage 8 -->
    <_>
      <maxWeakCount>5</maxWeakCount>
      <stageThreshold>-6.4716833829879761e-01</stageThreshold>
      <weakClassifiers>
        <_>
          <internalNodes>
            0 -1 26 1.0777663439512253e-02</internalNodes>
          <leafValues>
            -6.4101123809814453e-01 6.3653844594955444e-01</leafValues></_>
        <_>
          <internalNodes>
            0 -1 37 -5.8760019019246101e-03</internalNodes>
          <leafValues>
            6.2153911590576172e-01 -4.3556717038154602e-01</leafValues></_>
        <_>
          <internalNodes>
            0 -1 7 -1.1205645278096199e-03</internalNodes>
          <leafValues>
            7.2280585765838623e-01 -3.9371556043624878e-01</leafValues></_>
        <_>
          <internalNodes>
            0 -1 29 9.8317090305499732e-05</internalNodes>
          <leafValues>
            3.5061228275299072e-01 -8.9169025421142578e-01</leafValues></_>
        <_>
          <internalNodes>
            0 -1 35 2.7041521389037371e-03</internalNodes>
          <leafValues>
            -4.5881181955337524e-01 5.9472024440765381e-01</leafValues></_></weakClassifiers></_>
    <!-- stage 9 -->
    <_>
      <maxWeakCount>3</maxWeakCount>
      <stageThreshold>-1.4265273511409760e-01</stageThreshold>
      <weakClassifiers>
        <_>
          <internalNodes>
            0 -1 21 8.4779609460383654e-04</internalNodes>
          <leafValues>
            -9.6238833665847778e-01 5.4742485284805298e-01</leafValues></_>
        <_>
          <internalNodes>
            0 -1 23 2.6669614017009735e-02</internalNodes>
          <leafValues>
            3.9282622933387756e-01 -8.8283550739288330e-01</leafValues></_>
        <_>
          <internalNodes>
            0 -1 27 -1.9804541021585464e-02</internalNodes>
          <leafValues>
            -9.6174496412277222e-01 1.9275791943073273e-01</leafValues></_></weakClassifiers></_>
    <!-- stage 10 -->
    <_>
      <maxWeakCount>4</maxWeakCount>
      <stageThreshold>-1.0173009634017944e+00</stageThreshold>
      <weakClassifiers>
        <_>
          <internalNodes>
            0 -1 22 2.7394954115152359e-02</internalNodes>
          <leafValues>
            6.5847456455230713e-01 -8.6562502384185791e-01</leafValues></_>
        <_>
          <internalNodes>
            0 -1 34 -1.4497739262878895e-02</internalNodes>
          <leafValues>
            5.6400686502456665e-01 -4.9664199352264404e-01</leafValues></_>
        <_>
          <internalNodes>
            0 -1 20 -4.6624656533822417e-04</internalNodes>
          <leafValues>
            -8.5016983747482300e-01 2.9505324363708496e-01</leafValues></_>
        <_>
          <internalNodes>
            0 -1 30 -1.0360786691308022e-03</internalNodes>
          <leafValues>
            8.0144149065017700e-01 -3.2896369695663452e-01</leafValues></_></weakClassifiers></_></stages>
  <features>
    <_>
      <rects>
        <_>
          0 6 2 13 -1.</_>
        <_>
          1 6 1 13 2.</_></rects>
      <tilted>0</tilted></_>
    <_>
      <rects>
        <_>
          0 6 4 18 -1.</_>
        <_>
          2 6 2 18 2.</_></rects>
      <tilted>0</tilted></_>
    <_>
      <rects>
        <_>
          1 8 2 10 -1.</_>
        <_>
          2 8 1 10 2.</_></rects>
      <tilted>0</tilted></_>
    <_>
      <rects>
        <_>
          3 6 16 13 -1.</_>
        <_>
          11 6 8 13 2.</_></rects>
      <tilted>0</tilted></_>
    <_>
      <rects>
        <_>
          3 10 2 5 -1.</_>
        <_>
          4 10 1 5 2.</_></rects>
      <tilted>0</tilted></_>
    <_>
      <rects>
        <_>
          4 5 4 2 -1.</_>
        <_>
          4 6 4 1 2.</_></rects>
      <tilted>0</tilted></_>
    <_>
      <rects>
        <_>
          4 6 6 13 -1.</_>
        <_>
          7 6 3 13 2.</_></rects>
      <tilted>0</tilted></_>
    <_>
      <rects>
        <_>
          4 13 2 2 -1.</_>
        <_>
          4 13 1 1 2.</_>
        <_>
          5 14 1 1 2.</_></rects>
      <tilted>0</tilted></_>
    <_>
      <rects>
        <_>
          4 17 14 4 -1.</_>
        <_>
          4 19 14 2 2.</_></rects>
      <tilted>0</tilted></_>
    <_>
      <rects>
        <_>
          4 18 10 2 -1.</_>
        <_>
          4 18 5 1 2.</_>
        <_>
          9 19 5 1 2.</_></rects>
      <tilted>0</tilted></_>
    <_>
      <rects>
        <_>
          5 4 14 18 -1.</_>
        <_>
          5 13 14 9 2.</_></rects>
      <tilted>0</tilted></_>
    <_>
      <rects>
        <_>
          5 4 15 2 -1.</_>
        <_>
          5 5 15 1 2.</_></rects>
      <tilted>0</tilted></_>
    <_>
      <rects>
        <_>
          5 7 10 11 -1.</_>
        <_>
          10 7 5 11 2.</_></rects>
      <tilted>0</tilted></_>
    <_>
      <rects>
        <_>
          6 17 15 4 -1.</_>
        <_>
          6 19 15 2 2.</_></rects>
      <tilted>0</tilted></_>
    <_>
      <rects>
        <_>
          6 18 15 2 -1.</_>
        <_>
          6 19 15 1 2.</_></rects>
      <tilted>0</tilted></_>
    <_>
      <rects>
        <_>
          6 22 13 2 -1.</_>
        <_>
          6 23 13 1 2.</_></rects>
      <tilted>0</tilted></_>
    <_>
      <rects>
        <_>
          7 2 6 19 -1.</_>
        <_>
          10 2 3 19 2.</_></rects>
      <tilted>0</tilted></_>
    <_>
      <rects>
        <_>
          7 3 13 4 -1.</_>
        <_>
          7 5 13 2 2.</_></rects>
      <tilted>0</tilted></_>
    <_>
      <rects>
        <_>
          7 6 14 13 -1.</_>
        <_>
          14 6 7 13 2.</_></rects>
      <tilted>0</tilted></_>
    <_>
      <rects>
        <_>
          7 11 11 8 -1.</_>
        <_>
          7 15 11 4 2.</_></rects>
      <tilted>0</tilted></_>
    <_>
      <rects>
        <_>
          7 18 12 1 -1.</_>
        <_>
          13 18 6 1 2.</_></rects>
      <tilted>0</tilted></_>
    <_>
      <rects>
        <_>
          8 5 10 13 -1.</_>
        <_>
          13 5 5 13 2.</_></rects>
      <tilted>0</tilted></_>
    <_>
      <rects>
        <_>
          8 7 12 11 -1.</_>
        <_>
          14 7 6 11 2.</_></rects>
      <tilted>0</tilted></_>
    <_>
      <rects>
        <_>
          9 6 10 13 -1.</_>
        <_>
          14 6 5 13 2.</_></rects>
      <tilted>0</tilted></_>
    <_>
      <rects>
        <_>
          9 6 8 6 -1.</_>
        <_>
          9 9 8 3 2.</_></rects>
      <tilted>0</tilted></_>
    <_>
      <rects>
        <_>
          10 5 3 6 -1.</_>
        <_>
          10 8 3 3 2.</_></rects>
      <tilted>0</tilted></_>
    <_>
      <rects>
        <_>
          10 5 12 3 -1.</_>
        <_>
          16 5 6 3 2.</_></rects>
      <tilted>0</tilted></_>
    <_>
      <rects>
        <_>
          10 10 12 4 -1.</_>
        <_>
          16 10 6 4 2.</_></rects>
      <tilted>0</tilted></_>
    <_>
      <rects>
        <_>
          10 13 5 6 -1.</_>
        <_>
          10 16 5 3 2.</_></rects>
      <tilted>0</tilted></_>
    <_>
      <rects>
        <_>
          12 6 2 1 -1.</_>
        <_>
          13 6 1 1 2.</_></rects>
      <tilted>0</tilted></_>
    <_>
      <rects>
        <_>
          12 12 2 1 -1.</_>
        <_>
          13 12 1 1 2.</_></rects>
      <tilted>0</tilted></_>
    <_>
      <rects>
        <_>
          12 15 8 4 -1.</_>
        <_>
          12 15 4 2 2.</_>
        <_>
          16 17 4 2 2.</_></rects>
      <tilted>0</tilted></_>
    <_>
      <rects>
        <_>
          15 14 6 4 -1.</_>
        <_>
          15 14 3 2 2.</_>
        <_>
          18 16 3 2 2.</_></rects>
      <tilted>0</tilted></_>
    <_>
      <rects>
        <_>
          16 5 5 2 -1.</_>
        <_>
          16 6 5 1 2.</_></rects>
      <tilted>0</tilted></_>
    <_>
      <rects>
        <_>
          17 5 4 10 -1.</_>
        <_>
          17 5 2 5 2.</_>
        <_>
          19 10 2 5 2.</_></rects>
      <tilted>0</tilted></_>
    <_>
      <rects>
        <_>
          18 14 2 4 -1.</_>
        <_>
          18 14 1 2 2.</_>
        <_>
          19 16 1 2 2.</_></rects>
      <tilted>0</tilted></_>
    <_>
      <rects>
        <_>
          22 8 2 10 -1.</_>
        <_>
          23 8 1 10 2.</_></rects>
      <tilted>0</tilted></_>
    <_>
      <rects>
        <_>
          22 9 2 9 -1.</_>
        <_>
          23 9 1 9 2.</_></rects>
      <tilted>0</tilted></_></features></cascade>
</opencv_storage>
