<?xml version="1.0"?>
<opencv_storage>
<cascade>
  <stageType>BOOST</stageType>
  <featureType>HAAR</featureType>
  <height>20</height>
  <width>20</width>
  <stageParams>
    <boostType>GAB</boostType>
    <minHitRate>9.9500000476837158e-01</minHitRate>
    <maxFalseAlarm>5.0000000000000000e-01</maxFalseAlarm>
    <weightTrimRate>9.4999999999999996e-01</weightTrimRate>
    <maxDepth>1</maxDepth>
    <maxWeakCount>100</maxWeakCount></stageParams>
  <featureParams>
    <maxCatCount>0</maxCatCount>
    <featSize>1</featSize>
    <mode>BASIC</mode></featureParams>
  <stageNum>11</stageNum>
  <stages>
    <!-- stage 0 -->
    <_>
      <maxWeakCount>2</maxWeakCount>
      <stageThreshold>-2.4512445926666260e-01</stageThreshold>
      <weakClassifiers>
        <_>
          <internalNodes>
            0 -1 15 -1.2174162082374096e-02</internalNodes>
          <leafValues>
            8.0344480276107788e-01 -9.4490355253219604e-01</leafValues></_>
        <_>
          <internalNodes>
            0 -1 13 -2.5665084831416607e-03</internalNodes>
          <leafValues>
            6.9977909326553345e-01 -9.1245347261428833e-01</leafValues></_></weakClassifiers></_>
    <!-- stage 1 -->
    <_>
      <maxWeakCount>2</maxWeakCount>
      <stageThreshold>-1.0464894771575928e-01</stageThreshold>
      <weakClassifiers>
        <_>
          <internalNodes>
            0 -1 16 6.3949422910809517e-03</internalNodes>
          <leafValues>
            -8.5964912176132202e-01 8.3385908603668213e-01</leafValues></_>
        <_>
          <internalNodes>
            0 -1 31 -2.4688839912414551e-02</internalNodes>
          <leafValues>
            -8.8558238744735718e-01 7.5500017404556274e-01</leafValues></_></weakClassifiers></_>
    <!-- stage 2 -->
    <_>
      <maxWeakCount>3</maxWeakCount>
      <stageThreshold>-8.2555985450744629e-01</stageThreshold>
      <weakClassifiers>
        <_>
          <internalNodes>
            0 -1 21 1.4967462047934532e-02</internalNodes>
          <leafValues>
            -8.1132078170776367e-01 8.5745137929916382e-01</leafValues></_>
        <_>
          <internalNodes>
            0 -1 0 1.2202506884932518e-02</internalNodes>
          <leafValues>
            -6.2225669622421265e-01 8.6040157079696655e-01</leafValues></_>
        <_>
          <internalNodes>
            0 -1 34 1.8905862234532833e-03</internalNodes>
          <leafValues>
            -8.1709092855453491e-01 6.0801756381988525e-01</leafValues></_></weakClassifiers></_>
    <!-- stage 3 -->
    <_>
      <maxWeakCount>2</maxWeakCount>
      <stageThreshold>-3.7585914134979248e-02</stageThreshold>
      <weakClassifiers>
        <_>
          <internalNodes>
            0 -1 3 -8.0754384398460388e-03</internalNodes>
          <leafValues>
            8.8986229896545410e-01 -4.7368422150611877e-01</leafValues></_>
        <_>
          <internalNodes>
            0 -1 27 5.4656146094202995e-03</internalNodes>
          <leafValues>
            -9.2744821310043335e-01 6.2595945596694946e-01</leafValues></_></weakClassifiers></_>
    <!-- stage 4 -->
    <_>
      <maxWeakCount>2</maxWeakCount>
      <stageThreshold>-2.7976756915450096e-02</stageThreshold>
      <weakClassifiers>
        <_>
          <internalNodes>
            0 -1 4 1.6962597146630287e-02</internalNodes>
          <leafValues>
            7.4631267786026001e-01 -9.2792791128158569e-01</leafValues></_>
        <_>
          <internalNodes>
            0 -1 17 -1.0657583363354206e-02</internalNodes>
          <leafValues>
            8.9995115995407104e-01 -5.9711128473281860e-01</leafValues></_></weakClassifiers></_>
    <!-- stage 5 -->
    <_>
      <maxWeakCount>3</maxWeakCount>
      <stageThreshold>-5.1940160989761353e-01</stageThreshold>
      <weakClassifiers>
        <_>
          <internalNodes>
            0 -1 24 2.2059842944145203e-02</internalNodes>
          <leafValues>
            -9.3793106079101563e-01 6.8113207817077637e-01</leafValues></_>
        <_>
          <internalNodes>
            0 -1 1 1.4541454613208771e-02</internalNodes>
          <leafValues>
            -6.4337605237960815e-01 7.6332408189773560e-01</leafValues></_>
        <_>
          <internalNodes>
            0 -1 8 -3.3723739907145500e-03</internalNodes>
          <leafValues>
            7.6292634010314941e-01 -5.5715763568878174e-01</leafValues></_></weakClassifiers></_>
    <!-- stage 6 -->
    <_>
      <maxWeakCount>4</maxWeakCount>
      <stageThreshold>-3.0886030197143555e-01</stageThreshold>
      <weakClassifiers>
        <_>
          <internalNodes>
            0 -1 5 8.7553888559341431e-02</internalNodes>
          <leafValues>
            7.3411536216735840e-01 -9.2048931121826172e-01</leafValues></_>
        <_>
          <internalNodes>
            0 -1 7 -5.2683427929878235e-03</internalNodes>
          <leafValues>
            6.3521432876586914e-01 -8.0353772640228271e-01</leafValues></_>
        <_>
          <internalNodes>
            0 -1 2 1.0912315919995308e-02</internalNodes>
          <leafValues>
            -7.0381361246109009e-01 7.1878200769424438e-01</leafValues></_>
        <_>
          <internalNodes>
            0 -1 35 5.1239486783742905e-03</internalNodes>
          <leafValues>
            -6.4670246839523315e-01 6.9638472795486450e-01</leafValues></_></weakClassifiers></_>
    <!-- stage 7 -->
    <_>
      <maxWeakCount>4</maxWeakCount>
      <stageThreshold>-1.3114586472511292e-01</stageThreshold>
      <weakClassifiers>
        <_>
          <internalNodes>
            0 -1 14 -2.6107937097549438e-02</internalNodes>
          <leafValues>
            -7.3731344938278198e-01 6.8669950962066650e-01</leafValues></_>
        <_>
          <internalNodes>
            0 -1 11 7.6640546321868896e-03</internalNodes>
          <leafValues>
            -8.3926987648010254e-01 5.1354950666427612e-01</leafValues></_>
        <_>
          <internalNodes>
            0 -1 36 -1.1093081906437874e-02</internalNodes>
          <leafValues>
            8.2038861513137817e-01 -5.3429383039474487e-01</leafValues></_>
        <_>
          <internalNodes>
            0 -1 32 -1.3169366866350174e-02</internalNodes>
          <leafValues>
            6.2691193819046021e-01 -6.6341245174407959e-01</leafValues></_></weakClassifiers></_>
    <!-- stage 8 -->
    <_>
      <maxWeakCount>4</maxWeakCount>
      <stageThreshold>-2.3281130194664001e-01</stageThreshold>
      <weakClassifiers>
        <_>
          <internalNodes>
            0 -1 20 -5.1251235418021679e-03</internalNodes>
          <leafValues>
            -7.7111715078353882e-01 7.4567651748657227e-01</leafValues></_>
        <_>
          <internalNodes>
            0 -1 19 8.9180627837777138e-03</internalNodes>
          <leafValues>
            -5.0126928091049194e-01 8.1231033802032471e-01</leafValues></_>
        <_>
          <internalNodes>
            0 -1 33 9.1647636145353317e-03</internalNodes>
          <leafValues>
            -6.8272089958190918e-01 6.1586642265319824e-01</leafValues></_>
        <_>
          <internalNodes>
            0 -1 23 3.0529375653713942e-03</internalNodes>
          <leafValues>
            -8.7139713764190674e-01 4.2370873689651489e-01</leafValues></_></weakClassifiers></_>
    <!-- stage 9 -->
    <_>
      <maxWeakCount>5</maxWeakCount>
      <stageThreshold>-3.1246238946914673e-01</stageThreshold>
      <weakClassifiers>
        <_>
          <internalNodes>
            0 -1 22 -6.8282214924693108e-03</internalNodes>
          <leafValues>
            -9.0082645416259766e-01 6.0288810729980469e-01</leafValues></_>
        <_>
          <internalNodes>
            0 -1 18 1.1891178786754608e-02</internalNodes>
          <leafValues>
            -4.9119970202445984e-01 8.0709218978881836e-01</leafValues></_>
        <_>
          <internalNodes>
            0 -1 30 2.2018342278897762e-03</internalNodes>
          <leafValues>
            -6.3980126380920410e-01 5.9010428190231323e-01</leafValues></_>
        <_>
          <internalNodes>
            0 -1 29 -7.6393992640078068e-04</internalNodes>
          <leafValues>
            8.7041568756103516e-01 -4.3278104066848755e-01</leafValues></_>
        <_>
          <internalNodes>
            0 -1 28 7.0865177549421787e-03</internalNodes>
          <leafValues>
            -4.4934257864952087e-01 7.0824927091598511e-01</leafValues></_></weakClassifiers></_>
    <!-- stage 10 -->
    <_>
      <maxWeakCount>6</maxWeakCount>
      <stageThreshold>-8.7504202127456665e-01</stageThreshold>
      <weakClassifiers>
        <_>
          <internalNodes>
            0 -1 25 -1.6346529126167297e-02</internalNodes>
          <leafValues>
            -7.5451260805130005e-01 6.1416590213775635e-01</leafValues></_>
        <_>
          <internalNodes>
            0 -1 12 4.6124020591378212e-03</internalNodes>
          <leafValues>
            -5.3407222032546997e-01 6.3729739189147949e-01</leafValues></_>
        <_>
          <internalNodes>
            0 -1 10 -1.0268022306263447e-03</internalNodes>
          <leafValues>
            8.3775389194488525e-01 -4.1658028960227966e-01</leafValues></_>
        <_>
          <internalNodes>
            0 -1 9 -1.2134164571762085e-03</internalNodes>
          <leafValues>
            7.5233662128448486e-01 -3.8379710912704468e-01</leafValues></_>
        <_>
          <internalNodes>
            0 -1 26 1.4773004222661257e-03</internalNodes>
          <leafValues>
            -4.1941645741462708e-01 7.8910839557647705e-01</leafValues></_>
        <_>
          <internalNodes>
            0 -1 6 -1.0755397379398346e-02</internalNodes>
          <leafValues>
            4.2481181025505066e-01 -9.7023218870162964e-01</leafValues></_></weakClassifiers></_></stages>
  <features>
    <_>
      <rects>
        <_>
          0 3 2 14 -1.</_>
        <_>
          1 3 1 14 2.</_></rects>
      <tilted>0</tilted></_>
    <_>
      <rects>
        <_>
          0 4 2 12 -1.</_>
        <_>
          1 4 1 12 2.</_></rects>
      <tilted>0</tilted></_>
    <_>
      <rects>
        <_>
          0 6 2 11 -1.</_>
        <_>
          1 6 1 11 2.</_></rects>
      <tilted>0</tilted></_>
    <_>
      <rects>
        <_>
          1 18 15 2 -1.</_>
        <_>
          1 19 15 1 2.</_></rects>
      <tilted>0</tilted></_>
    <_>
      <rects>
        <_>
          2 5 14 11 -1.</_>
        <_>
          9 5 7 11 2.</_></rects>
      <tilted>0</tilted></_>
    <_>
      <rects>
        <_>
          3 2 13 14 -1.</_>
        <_>
          3 9 13 7 2.</_></rects>
      <tilted>0</tilted></_>
    <_>
      <rects>
        <_>
          3 5 6 10 -1.</_>
        <_>
          6 5 3 10 2.</_></rects>
      <tilted>0</tilted></_>
    <_>
      <rects>
        <_>
          4 4 12 2 -1.</_>
        <_>
          4 5 12 1 2.</_></rects>
      <tilted>0</tilted></_>
    <_>
      <rects>
        <_>
          4 10 2 6 -1.</_>
        <_>
          4 10 1 3 2.</_>
        <_>
          5 13 1 3 2.</_></rects>
      <tilted>0</tilted></_>
    <_>
      <rects>
        <_>
          4 11 2 2 -1.</_>
        <_>
          4 11 1 1 2.</_>
        <_>
          5 12 1 1 2.</_></rects>
      <tilted>0</tilted></_>
    <_>
      <rects>
        <_>
          4 13 2 2 -1.</_>
        <_>
          4 13 1 1 2.</_>
        <_>
          5 14 1 1 2.</_></rects>
      <tilted>0</tilted></_>
    <_>
      <rects>
        <_>
          4 15 12 2 -1.</_>
        <_>
          4 16 12 1 2.</_></rects>
      <tilted>0</tilted></_>
    <_>
      <rects>
        <_>
          5 0 11 2 -1.</_>
        <_>
          5 1 11 1 2.</_></rects>
      <tilted>0</tilted></_>
    <_>
      <rects>
        <_>
          5 4 12 2 -1.</_>
        <_>
          5 5 12 1 2.</_></rects>
      <tilted>0</tilted></_>
    <_>
      <rects>
        <_>
          5 6 1 9 -1.</_>
        <_>
          5 9 1 3 2.</_></rects>
      <tilted>0</tilted></_>
    <_>
      <rects>
        <_>
          5 11 9 4 -1.</_>
        <_>
          5 13 9 2 2.</_></rects>
      <tilted>0</tilted></_>
    <_>
      <rects>
        <_>
          5 15 12 2 -1.</_>
        <_>
          5 16 12 1 2.</_></rects>
      <tilted>0</tilted></_>
    <_>
      <rects>
        <_>
          5 18 10 2 -1.</_>
        <_>
          5 19 10 1 2.</_></rects>
      <tilted>0</tilted></_>
    <_>
      <rects>
        <_>
          6 1 9 2 -1.</_>
        <_>
          6 2 9 1 2.</_></rects>
      <tilted>0</tilted></_>
    <_>
      <rects>
        <_>
          6 1 11 2 -1.</_>
        <_>
          6 2 11 1 2.</_></rects>
      <tilted>0</tilted></_>
    <_>
      <rects>
        <_>
          6 5 10 9 -1.</_>
        <_>
          11 5 5 9 2.</_></rects>
      <tilted>0</tilted></_>
    <_>
      <rects>
        <_>
          6 5 8 4 -1.</_>
        <_>
          6 7 8 2 2.</_></rects>
      <tilted>0</tilted></_>
    <_>
      <rects>
        <_>
          6 8 12 8 -1.</_>
        <_>
          12 8 6 8 2.</_></rects>
      <tilted>0</tilted></_>
    <_>
      <rects>
        <_>
          7 4 10 2 -1.</_>
        <_>
          12 4 5 2 2.</_></rects>
      <tilted>0</tilted></_>
    <_>
      <rects>
        <_>
          7 4 7 8 -1.</_>
        <_>
          7 8 7 4 2.</_></rects>
      <tilted>0</tilted></_>
    <_>
      <rects>
        <_>
          7 5 6 1 -1.</_>
        <_>
          9 5 2 1 2.</_></rects>
      <tilted>0</tilted></_>
    <_>
      <rects>
        <_>
          7 10 2 1 -1.</_>
        <_>
          8 10 1 1 2.</_></rects>
      <tilted>0</tilted></_>
    <_>
      <rects>
        <_>
          8 4 10 12 -1.</_>
        <_>
          13 4 5 12 2.</_></rects>
      <tilted>0</tilted></_>
    <_>
      <rects>
        <_>
          9 6 3 2 -1.</_>
        <_>
          9 7 3 1 2.</_></rects>
      <tilted>0</tilted></_>
    <_>
      <rects>
        <_>
          9 8 1 2 -1.</_>
        <_>
          9 9 1 1 2.</_></rects>
      <tilted>0</tilted></_>
    <_>
      <rects>
        <_>
          9 14 8 2 -1.</_>
        <_>
          9 14 4 1 2.</_>
        <_>
          13 15 4 1 2.</_></rects>
      <tilted>0</tilted></_>
    <_>
      <rects>
        <_>
          10 4 1 12 -1.</_>
        <_>
          10 8 1 4 2.</_></rects>
      <tilted>0</tilted></_>
    <_>
      <rects>
        <_>
          11 5 8 4 -1.</_>
        <_>
          11 5 4 2 2.</_>
        <_>
          15 7 4 2 2.</_></rects>
      <tilted>0</tilted></_>
    <_>
      <rects>
        <_>
          11 12 6 4 -1.</_>
        <_>
          11 12 3 2 2.</_>
        <_>
          14 14 3 2 2.</_></rects>
      <tilted>0</tilted></_>
    <_>
      <rects>
        <_>
          11 13 6 2 -1.</_>
        <_>
          11 13 3 1 2.</_>
        <_>
          14 14 3 1 2.</_></rects>
      <tilted>0</tilted></_>
    <_>
      <rects>
        <_>
          13 11 4 4 -1.</_>
        <_>
          13 11 2 2 2.</_>
        <_>
          15 13 2 2 2.</_></rects>
      <tilted>0</tilted></_>
    <_>
      <rects>
        <_>
          18 6 2 9 -1.</_>
        <_>
          19 6 1 9 2.</_></rects>
      <tilted>0</tilted></_></features></cascade>
</opencv_storage>
