<?xml version="1.0"?>
<opencv_storage>
<stage8>
  <maxWeakCount>5</maxWeakCount>
  <stageThreshold>-5.8858972787857056e-01</stageThreshold>
  <weakClassifiers>
    <_>
      <internalNodes>
        0 -1 134865 1.4567651785910130e-02</internalNodes>
      <leafValues>
        -8.3103448152542114e-01 6.1239671707153320e-01</leafValues></_>
    <_>
      <internalNodes>
        0 -1 44863 7.1775386459194124e-05</internalNodes>
      <leafValues>
        -8.9580678939819336e-01 3.3262550830841064e-01</leafValues></_>
    <_>
      <internalNodes>
        0 -1 77035 -6.3790543936192989e-03</internalNodes>
      <leafValues>
        -7.9332226514816284e-01 3.0356791615486145e-01</leafValues></_>
    <_>
      <internalNodes>
        0 -1 119076 -8.1885773688554764e-03</internalNodes>
      <leafValues>
        3.4547001123428345e-01 -7.2295957803726196e-01</leafValues></_>
    <_>
      <internalNodes>
        0 -1 133363 -2.5480702519416809e-02</internalNodes>
      <leafValues>
        3.5767143964767456e-01 -6.2118124961853027e-01</leafValues></_></weakClassifiers></stage8>
</opencv_storage>
